digraph Tree {
node [shape=box, fontname="helvetica"] ;
edge [fontname="helvetica"] ;
0 [label="generation hydro run-of-river and poundage <= 1214.5\ngini = 0.497\nsamples = 124716\nvalue = [57607, 67109]"] ;
1 [label="generation wind onshore <= 8121.5\ngini = 0.499\nsamples = 90243\nvalue = [43367.0, 46876.0]"] ;
0 -> 1 [labeldistance=2.5, labelangle=45, headlabel="True"] ;
2 [label="gini = 0.5\nsamples = 76595\nvalue = [37671, 38924]"] ;
1 -> 2 ;
3 [label="gini = 0.486\nsamples = 13648\nvalue = [5696, 7952]"] ;
1 -> 3 ;
4 [label="generation nuclear <= 5086.5\ngini = 0.485\nsamples = 34473\nvalue = [14240, 20233]"] ;
0 -> 4 [labeldistance=2.5, labelangle=-45, headlabel="False"] ;
5 [label="gini = 0.498\nsamples = 9268\nvalue = [4336, 4932]"] ;
4 -> 5 ;
6 [label="gini = 0.477\nsamples = 25205\nvalue = [9904, 15301]"] ;
4 -> 6 ;
}